digraph Tree {
node [shape=box, style="filled, rounded", color="black", fontname="helvetica"] ;
edge [fontname="helvetica"] ;
0 [label="Faltas_Mes <= 2.5\ngini = 0.48\nsamples = 10\nvalue = [6, 4]\nclass = Aprovado", fillcolor="#f6d5bd"] ;
1 [label="gini = 0.0\nsamples = 6\nvalue = [6, 0]\nclass = Aprovado", fillcolor="#e58139"] ;
0 -> 1 [labeldistance=2.5, labelangle=45, headlabel="True"] ;
2 [label="gini = 0.0\nsamples = 4\nvalue = [0, 4]\nclass = Reprovado", fillcolor="#399de5"] ;
0 -> 2 [labeldistance=2.5, labelangle=-45, headlabel="False"] ;
}